<?xml version="1.0"?>
<opencv_storage>
<cascade>
  <stageType>BOOST</stageType>
  <featureType>HAAR</featureType>
  <height>24</height>
  <width>24</width>
  <stageParams>
    <boostType>GAB</boostType>
    <minHitRate>9.9500000476837158e-01</minHitRate>
    <maxFalseAlarm>5.0000000000000000e-01</maxFalseAlarm>
    <weightTrimRate>9.4999999999999996e-01</weightTrimRate>
    <maxDepth>1</maxDepth>
    <maxWeakCount>100</maxWeakCount></stageParams>
  <featureParams>
    <maxCatCount>0</maxCatCount>
    <featSize>1</featSize>
    <mode>BASIC</mode></featureParams>
  <stageNum>13</stageNum>
  <stages>
    <!-- stage 0 -->
    <_>
      <maxWeakCount>2</maxWeakCount>
      <stageThreshold>-2.0836117863655090e-01</stageThreshold>
      <weakClassifiers>
        <_>
          <internalNodes>
            0 -1 23 1.7950899899005890e-02</internalNodes>
          <leafValues>
            -9.7864770889282227e-01 7.3964494466781616e-01</leafValues></_>
        <_>
          <internalNodes>
            0 -1 35 -1.2596750631928444e-02</internalNodes>
          <leafValues>
            8.1631821393966675e-01 -9.4800615310668945e-01</leafValues></_></weakClassifiers></_>
    <!-- stage 1 -->
    <_>
      <maxWeakCount>2</maxWeakCount>
      <stageThreshold>-2.1054121851921082e-01</stageThreshold>
      <weakClassifiers>
        <_>
          <internalNodes>
            0 -1 6 1.4706736803054810e-01</internalNodes>
          <leafValues>
            -9.0131580829620361e-01 8.4931504726409912e-01</leafValues></_>
        <_>
          <internalNodes>
            0 -1 17 4.1414070129394531e-01</internalNodes>
          <leafValues>
            -9.0376693010330200e-01 6.9077455997467041e-01</leafValues></_></weakClassifiers></_>
    <!-- stage 2 -->
    <_>
      <maxWeakCount>2</maxWeakCount>
      <stageThreshold>-3.0218300223350525e-01</stageThreshold>
      <weakClassifiers>
        <_>
          <internalNodes>
            0 -1 3 1.6112902760505676e-01</internalNodes>
          <leafValues>
            -9.4425088167190552e-01 7.4233126640319824e-01</leafValues></_>
        <_>
          <internalNodes>
            0 -1 39 -1.1029978096485138e-01</internalNodes>
          <leafValues>
            6.4206784963607788e-01 -9.1862076520919800e-01</leafValues></_></weakClassifiers></_>
    <!-- stage 3 -->
    <_>
      <maxWeakCount>4</maxWeakCount>
      <stageThreshold>-6.8828010559082031e-01</stageThreshold>
      <weakClassifiers>
        <_>
          <internalNodes>
            0 -1 20 3.5126604139804840e-02</internalNodes>
          <leafValues>
            -8.1333333253860474e-01 6.2666666507720947e-01</leafValues></_>
        <_>
          <internalNodes>
            0 -1 21 1.2064874917268753e-01</internalNodes>
          <leafValues>
            -7.1119147539138794e-01 5.2431863546371460e-01</leafValues></_>
        <_>
          <internalNodes>
            0 -1 8 -2.0691677927970886e-03</internalNodes>
          <leafValues>
            4.7790595889091492e-01 -8.1958788633346558e-01</leafValues></_>
        <_>
          <internalNodes>
            0 -1 10 4.4370175601216033e-05</internalNodes>
          <leafValues>
            -8.8133698701858521e-01 4.2032244801521301e-01</leafValues></_></weakClassifiers></_>
    <!-- stage 4 -->
    <_>
      <maxWeakCount>4</maxWeakCount>
      <stageThreshold>-9.8842173814773560e-01</stageThreshold>
      <weakClassifiers>
        <_>
          <internalNodes>
            0 -1 42 5.0952434539794922e-02</internalNodes>
          <leafValues>
            -7.2185432910919189e-01 4.5945945382118225e-01</leafValues></_>
        <_>
          <internalNodes>
            0 -1 1 1.1390069127082825e-01</internalNodes>
          <leafValues>
            -9.0375190973281860e-01 4.1349706053733826e-01</leafValues></_>
        <_>
          <internalNodes>
            0 -1 26 2.8155115433037281e-04</internalNodes>
          <leafValues>
            3.4959959983825684e-01 -9.7039771080017090e-01</leafValues></_>
        <_>
          <internalNodes>
            0 -1 4 3.9367234706878662e-01</internalNodes>
          <leafValues>
            -9.7075492143630981e-01 2.9033318161964417e-01</leafValues></_></weakClassifiers></_>
    <!-- stage 5 -->
    <_>
      <maxWeakCount>4</maxWeakCount>
      <stageThreshold>-8.8794779777526855e-01</stageThreshold>
      <weakClassifiers>
        <_>
          <internalNodes>
            0 -1 38 7.3191590607166290e-02</internalNodes>
          <leafValues>
            -9.3248945474624634e-01 3.3333334326744080e-01</leafValues></_>
        <_>
          <internalNodes>
            0 -1 12 8.5636645555496216e-02</internalNodes>
          <leafValues>
            -7.3535805940628052e-01 4.4105458259582520e-01</leafValues></_>
        <_>
          <internalNodes>
            0 -1 41 -6.8784970790147781e-03</internalNodes>
          <leafValues>
            4.6106100082397461e-01 -8.0415242910385132e-01</leafValues></_>
        <_>
          <internalNodes>
            0 -1 24 9.5721881370991468e-04</internalNodes>
          <leafValues>
            4.0763950347900391e-01 -9.1989278793334961e-01</leafValues></_></weakClassifiers></_>
    <!-- stage 6 -->
    <_>
      <maxWeakCount>2</maxWeakCount>
      <stageThreshold>-4.5682099461555481e-01</stageThreshold>
      <weakClassifiers>
        <_>
          <internalNodes>
            0 -1 37 1.5744939446449280e-01</internalNodes>
          <leafValues>
            -7.6388889551162720e-01 4.3209877610206604e-01</leafValues></_>
        <_>
          <internalNodes>
            0 -1 29 -2.1997114527039230e-04</internalNodes>
          <leafValues>
            -1. 3.0706790089607239e-01</leafValues></_></weakClassifiers></_>
    <!-- stage 7 -->
    <_>
      <maxWeakCount>5</maxWeakCount>
      <stageThreshold>-1.3732842206954956e+00</stageThreshold>
      <weakClassifiers>
        <_>
          <internalNodes>
            0 -1 11 3.7633538246154785e-02</internalNodes>
          <leafValues>
            -7.1147543191909790e-01 4.6206897497177124e-01</leafValues></_>
        <_>
          <internalNodes>
            0 -1 16 4.7377055883407593e-01</internalNodes>
          <leafValues>
            -7.6841950416564941e-01 4.7272965312004089e-01</leafValues></_>
        <_>
          <internalNodes>
            0 -1 32 7.0898456033319235e-04</internalNodes>
          <leafValues>
            4.0653461217880249e-01 -7.9756397008895874e-01</leafValues></_>
        <_>
          <internalNodes>
            0 -1 9 4.1794852586463094e-04</internalNodes>
          <leafValues>
            5.4414117336273193e-01 -7.0703470706939697e-01</leafValues></_>
        <_>
          <internalNodes>
            0 -1 30 1.5338869707193226e-04</internalNodes>
          <leafValues>
            4.0711078047752380e-01 -8.9803659915924072e-01</leafValues></_></weakClassifiers></_>
    <!-- stage 8 -->
    <_>
      <maxWeakCount>4</maxWeakCount>
      <stageThreshold>-1.1440633535385132e+00</stageThreshold>
      <weakClassifiers>
        <_>
          <internalNodes>
            0 -1 44 1.5768050216138363e-03</internalNodes>
          <leafValues>
            -8.6854457855224609e-01 1.4767932891845703e-01</leafValues></_>
        <_>
          <internalNodes>
            0 -1 40 -4.2525287426542491e-05</internalNodes>
          <leafValues>
            3.2883936166763306e-01 -7.8476411104202271e-01</leafValues></_>
        <_>
          <internalNodes>
            0 -1 13 2.9110710602253675e-04</internalNodes>
          <leafValues>
            -8.6165404319763184e-01 3.1646084785461426e-01</leafValues></_>
        <_>
          <internalNodes>
            0 -1 43 -3.2933346927165985e-02</internalNodes>
          <leafValues>
            2.5729593634605408e-01 -9.7035896778106689e-01</leafValues></_></weakClassifiers></_>
    <!-- stage 9 -->
    <_>
      <maxWeakCount>4</maxWeakCount>
      <stageThreshold>-8.4257715940475464e-01</stageThreshold>
      <weakClassifiers>
        <_>
          <internalNodes>
            0 -1 18 1.0567095130681992e-01</internalNodes>
          <leafValues>
            -8.7450981140136719e-01 3.7435898184776306e-01</leafValues></_>
        <_>
          <internalNodes>
            0 -1 36 1.8550609820522368e-04</internalNodes>
          <leafValues>
            -8.6911123991012573e-01 2.9935285449028015e-01</leafValues></_>
        <_>
          <internalNodes>
            0 -1 34 2.2221792489290237e-02</internalNodes>
          <leafValues>
            -5.9081232547760010e-01 6.8929666280746460e-01</leafValues></_>
        <_>
          <internalNodes>
            0 -1 2 1.4920586347579956e-01</internalNodes>
          <leafValues>
            -1. 3.2339215278625488e-01</leafValues></_></weakClassifiers></_>
    <!-- stage 10 -->
    <_>
      <maxWeakCount>4</maxWeakCount>
      <stageThreshold>-7.1499168872833252e-01</stageThreshold>
      <weakClassifiers>
        <_>
          <internalNodes>
            0 -1 7 3.3964812755584717e-02</internalNodes>
          <leafValues>
            -7.0987653732299805e-01 6.3492065668106079e-01</leafValues></_>
        <_>
          <internalNodes>
            0 -1 14 -9.9634453654289246e-02</internalNodes>
          <leafValues>
            4.0891578793525696e-01 -8.2243263721466064e-01</leafValues></_>
        <_>
          <internalNodes>
            0 -1 33 7.0893857628107071e-03</internalNodes>
          <leafValues>
            -6.6645431518554688e-01 5.0518047809600830e-01</leafValues></_>
        <_>
          <internalNodes>
            0 -1 31 1.5137583250179887e-04</internalNodes>
          <leafValues>
            3.1213697791099548e-01 -8.8528370857238770e-01</leafValues></_></weakClassifiers></_>
    <!-- stage 11 -->
    <_>
      <maxWeakCount>5</maxWeakCount>
      <stageThreshold>-5.8221131563186646e-01</stageThreshold>
      <weakClassifiers>
        <_>
          <internalNodes>
            0 -1 22 -1.4202723279595375e-02</internalNodes>
          <leafValues>
            4.7286820411682129e-01 -6.5732085704803467e-01</leafValues></_>
        <_>
          <internalNodes>
            0 -1 5 2.7897771447896957e-02</internalNodes>
          <leafValues>
            -7.0337969064712524e-01 3.9716437458992004e-01</leafValues></_>
        <_>
          <internalNodes>
            0 -1 25 -1.2243744276929647e-04</internalNodes>
          <leafValues>
            -9.5476621389389038e-01 2.6113784313201904e-01</leafValues></_>
        <_>
          <internalNodes>
            0 -1 0 2.4421102716587484e-04</internalNodes>
          <leafValues>
            -9.0051269531250000e-01 2.9725909233093262e-01</leafValues></_>
        <_>
          <internalNodes>
            0 -1 28 5.2214141760487109e-05</internalNodes>
          <leafValues>
            3.3545225858688354e-01 -7.6504927873611450e-01</leafValues></_></weakClassifiers></_>
    <!-- stage 12 -->
    <_>
      <maxWeakCount>4</maxWeakCount>
      <stageThreshold>-9.5430165529251099e-01</stageThreshold>
      <weakClassifiers>
        <_>
          <internalNodes>
            0 -1 15 6.3377618789672852e-02</internalNodes>
          <leafValues>
            -7.3665481805801392e-01 3.3727809786796570e-01</leafValues></_>
        <_>
          <internalNodes>
            0 -1 45 -1.4053622726351023e-04</internalNodes>
          <leafValues>
            3.6201596260070801e-01 -7.5186729431152344e-01</leafValues></_>
        <_>
          <internalNodes>
            0 -1 27 -2.2071460261940956e-04</internalNodes>
          <leafValues>
            -7.5013899803161621e-01 3.5774102807044983e-01</leafValues></_>
        <_>
          <internalNodes>
            0 -1 19 5.5041895393515006e-05</internalNodes>
          <leafValues>
            -9.0345668792724609e-01 3.1545618176460266e-01</leafValues></_></weakClassifiers></_></stages>
  <features>
    <_>
      <rects>
        <_>
          0 0 2 12 -1.</_>
        <_>
          0 0 1 6 2.</_>
        <_>
          1 6 1 6 2.</_></rects>
      <tilted>0</tilted></_>
    <_>
      <rects>
        <_>
          0 0 16 9 -1.</_>
        <_>
          8 0 8 9 2.</_></rects>
      <tilted>0</tilted></_>
    <_>
      <rects>
        <_>
          0 0 23 12 -1.</_>
        <_>
          0 6 23 6 2.</_></rects>
      <tilted>0</tilted></_>
    <_>
      <rects>
        <_>
          0 3 10 18 -1.</_>
        <_>
          5 3 5 18 2.</_></rects>
      <tilted>0</tilted></_>
    <_>
      <rects>
        <_>
          0 6 24 15 -1.</_>
        <_>
          8 6 8 15 3.</_></rects>
      <tilted>0</tilted></_>
    <_>
      <rects>
        <_>
          0 15 10 2 -1.</_>
        <_>
          5 15 5 2 2.</_></rects>
      <tilted>0</tilted></_>
    <_>
      <rects>
        <_>
          0 16 24 4 -1.</_>
        <_>
          8 16 8 4 3.</_></rects>
      <tilted>0</tilted></_>
    <_>
      <rects>
        <_>
          0 19 21 1 -1.</_>
        <_>
          7 19 7 1 3.</_></rects>
      <tilted>0</tilted></_>
    <_>
      <rects>
        <_>
          0 19 12 2 -1.</_>
        <_>
          0 20 12 1 2.</_></rects>
      <tilted>0</tilted></_>
    <_>
      <rects>
        <_>
          1 0 15 3 -1.</_>
        <_>
          6 0 5 3 3.</_></rects>
      <tilted>0</tilted></_>
    <_>
      <rects>
        <_>
          1 3 1 2 -1.</_>
        <_>
          1 4 1 1 2.</_></rects>
      <tilted>0</tilted></_>
    <_>
      <rects>
        <_>
          1 14 15 3 -1.</_>
        <_>
          6 14 5 3 3.</_></rects>
      <tilted>0</tilted></_>
    <_>
      <rects>
        <_>
          2 1 5 21 -1.</_>
        <_>
          2 8 5 7 3.</_></rects>
      <tilted>0</tilted></_>
    <_>
      <rects>
        <_>
          2 13 2 1 -1.</_>
        <_>
          3 13 1 1 2.</_></rects>
      <tilted>0</tilted></_>
    <_>
      <rects>
        <_>
          2 16 21 8 -1.</_>
        <_>
          2 20 21 4 2.</_></rects>
      <tilted>0</tilted></_>
    <_>
      <rects>
        <_>
          2 18 18 3 -1.</_>
        <_>
          8 18 6 3 3.</_></rects>
      <tilted>0</tilted></_>
    <_>
      <rects>
        <_>
          3 0 19 24 -1.</_>
        <_>
          3 8 19 8 3.</_></rects>
      <tilted>0</tilted></_>
    <_>
      <rects>
        <_>
          4 0 19 24 -1.</_>
        <_>
          4 8 19 8 3.</_></rects>
      <tilted>0</tilted></_>
    <_>
      <rects>
        <_>
          5 0 4 24 -1.</_>
        <_>
          5 8 4 8 3.</_></rects>
      <tilted>0</tilted></_>
    <_>
      <rects>
        <_>
          5 4 1 2 -1.</_>
        <_>
          5 5 1 1 2.</_></rects>
      <tilted>0</tilted></_>
    <_>
      <rects>
        <_>
          6 0 2 14 -1.</_>
        <_>
          6 7 2 7 2.</_></rects>
      <tilted>0</tilted></_>
    <_>
      <rects>
        <_>
          6 0 18 8 -1.</_>
        <_>
          12 0 6 8 3.</_></rects>
      <tilted>0</tilted></_>
    <_>
      <rects>
        <_>
          9 0 10 6 -1.</_>
        <_>
          9 0 5 3 2.</_>
        <_>
          14 3 5 3 2.</_></rects>
      <tilted>0</tilted></_>
    <_>
      <rects>
        <_>
          9 0 8 6 -1.</_>
        <_>
          9 3 8 3 2.</_></rects>
      <tilted>0</tilted></_>
    <_>
      <rects>
        <_>
          9 10 6 4 -1.</_>
        <_>
          12 10 3 4 2.</_></rects>
      <tilted>0</tilted></_>
    <_>
      <rects>
        <_>
          9 11 5 3 -1.</_>
        <_>
          9 12 5 1 3.</_></rects>
      <tilted>0</tilted></_>
    <_>
      <rects>
        <_>
          9 13 6 2 -1.</_>
        <_>
          11 13 2 2 3.</_></rects>
      <tilted>0</tilted></_>
    <_>
      <rects>
        <_>
          10 7 14 6 -1.</_>
        <_>
          10 7 7 3 2.</_>
        <_>
          17 10 7 3 2.</_></rects>
      <tilted>0</tilted></_>
    <_>
      <rects>
        <_>
          10 11 6 2 -1.</_>
        <_>
          12 11 2 2 3.</_></rects>
      <tilted>0</tilted></_>
    <_>
      <rects>
        <_>
          10 12 4 4 -1.</_>
        <_>
          12 12 2 4 2.</_></rects>
      <tilted>0</tilted></_>
    <_>
      <rects>
        <_>
          10 13 4 3 -1.</_>
        <_>
          12 13 2 3 2.</_></rects>
      <tilted>0</tilted></_>
    <_>
      <rects>
        <_>
          11 11 5 3 -1.</_>
        <_>
          11 12 5 1 3.</_></rects>
      <tilted>0</tilted></_>
    <_>
      <rects>
        <_>
          11 12 6 3 -1.</_>
        <_>
          13 12 2 3 3.</_></rects>
      <tilted>0</tilted></_>
    <_>
      <rects>
        <_>
          12 5 10 8 -1.</_>
        <_>
          12 5 5 4 2.</_>
        <_>
          17 9 5 4 2.</_></rects>
      <tilted>0</tilted></_>
    <_>
      <rects>
        <_>
          12 12 3 12 -1.</_>
        <_>
          12 16 3 4 3.</_></rects>
      <tilted>0</tilted></_>
    <_>
      <rects>
        <_>
          12 19 10 4 -1.</_>
        <_>
          12 21 10 2 2.</_></rects>
      <tilted>0</tilted></_>
    <_>
      <rects>
        <_>
          13 0 3 8 -1.</_>
        <_>
          14 0 1 8 3.</_></rects>
      <tilted>0</tilted></_>
    <_>
      <rects>
        <_>
          14 3 8 21 -1.</_>
        <_>
          14 10 8 7 3.</_></rects>
      <tilted>0</tilted></_>
    <_>
      <rects>
        <_>
          15 5 8 18 -1.</_>
        <_>
          15 11 8 6 3.</_></rects>
      <tilted>0</tilted></_>
    <_>
      <rects>
        <_>
          16 1 8 18 -1.</_>
        <_>
          20 1 4 18 2.</_></rects>
      <tilted>0</tilted></_>
    <_>
      <rects>
        <_>
          16 2 2 1 -1.</_>
        <_>
          17 2 1 1 2.</_></rects>
      <tilted>0</tilted></_>
    <_>
      <rects>
        <_>
          17 8 6 2 -1.</_>
        <_>
          20 8 3 2 2.</_></rects>
      <tilted>0</tilted></_>
    <_>
      <rects>
        <_>
          18 3 2 21 -1.</_>
        <_>
          18 10 2 7 3.</_></rects>
      <tilted>0</tilted></_>
    <_>
      <rects>
        <_>
          18 8 6 12 -1.</_>
        <_>
          21 8 3 12 2.</_></rects>
      <tilted>0</tilted></_>
    <_>
      <rects>
        <_>
          20 12 4 8 -1.</_>
        <_>
          20 12 2 4 2.</_>
        <_>
          22 16 2 4 2.</_></rects>
      <tilted>0</tilted></_>
    <_>
      <rects>
        <_>
          21 17 1 2 -1.</_>
        <_>
          21 18 1 1 2.</_></rects>
      <tilted>0</tilted></_></features></cascade>
</opencv_storage>
